let best = [];

best.push({"_learningRate":0.1,"layers":[{"nodes":4},{"nodes":10},{"nodes":10},{"nodes":3}],"connections":[{"weights":{"rows":10,"cols":4,"data":[[2.5918085926521153,3.205693508139167,0.7620209939328817,2.7925894807161318],[-1.578580566606923,-13.59796757942557,-3.6579327086562867,-0.010930352563876644],[-5.0021280533485,0.7030995075309872,-5.956116438984752,4.028718070741551],[-0.6296888470033944,-1.43977427679526,-4.398968814080859,-3.4632705537581527],[-0.5696380239472475,-10.661585047066112,0.6084875726662663,4.196158122580711],[1.0459696553983422,5.575726500148028,-3.4807566504503464,-2.7197953662382197],[3.454618014220315,-0.6118565854903439,1.293518640891811,-0.800869593459363],[-0.7520299707021872,0.5203181500146832,-1.6586083535592753,2.0144834184986165],[-3.7268746933626944,4.904917134026815,-2.277197406213211,-2.0427820523221234],[-1.0675118386187008,-2.6012827662889335,2.4356070843828466,-3.749691984202891]]},"bias":{"rows":10,"cols":1,"data":[[-0.2152279278625172],[-0.6357418126302948],[-10.419732242477686],[1.1490714041773804],[-1.5404230533626784],[0.4836953109488011],[-1.0253204021427063],[-2.0086613489532303],[-5.993462717123493],[3.211471101328735]]}},{"weights":{"rows":10,"cols":10,"data":[[0.037911777366002514,7.627543871892685,-6.258029409262268,1.6880488099412045,0.07325870995753114,2.226694412113004,-0.7201127119276268,0.351793885764079,2.3955842071020226,-0.6236697323098817],[0.5979759250786153,5.602824681706519,-1.7220464630339716,1.447617445110467,1.6639675730762657,2.6311903957982485,2.290645584949777,0.5998026475272797,3.4651955158092327,-1.6515994499904467],[1.894233560647791,-4.78343004341151,-6.058213129121476,5.516174967308211,3.7383845545683116,-0.8270582315435194,-1.2211923950616563,-5.913837883137336,-0.8952022973601648,1.7696932782545476],[10.715896525831813,-2.274716138656813,6.851281753341707,1.2857639717393825,5.90375141699857,5.591614469640688,-4.439308026239196,-7.246509194436037,5.834396233153704,-1.1427317124096248],[-2.9633911277471174,2.852928580995065,4.397266700204708,10.023786435965201,2.898676480329379,-4.14318415217659,1.0776795915757462,-1.778799096647682,-15.355347091252328,5.646783885927409],[0.21118861894305604,-3.303579137815843,9.398172452006467,-1.5769951140346645,-1.241508098225656,4.478016431014698,0.7033433161934957,-7.878268585306772,-3.988034765067136,-0.6289866687560834],[-6.0503492560525665,-9.75807615130092,-5.829040404128331,9.95729084126826,-3.312537994882622,2.147978145590472,-6.431230525583466,0.8653026350098971,0.4129432644140484,4.47861767569764],[2.3879170676301236,-2.1848711634095164,-3.6451012618771665,-0.6942717312098279,-2.3450324802415423,0.6675752034560104,1.0356742047913903,0.6438714406245512,-7.7840164220374355,-1.1459744089908983],[2.7561259444189155,6.553435335379951,5.404819387444525,9.432978024034469,3.0879090965341844,3.235034557558172,3.0774965305794724,2.4292565300645284,-4.074829296791811,-0.36867471941042784],[-4.455823016091439,-6.967428271102538,4.085446464567781,5.227420572671018,3.668076030345114,7.815662580550387,-13.512268728832652,-6.0088107968294775,-0.2472675358931845,-4.5342865611192185]]},"bias":{"rows":10,"cols":1,"data":[[-1.9604160138980495],[-7.441631807331753],[-2.1168162361367675],[-0.38487774306523037],[-3.223878964851762],[-5.357833710720379],[-5.9894295189007725],[-0.4518983480764503],[-2.8939796110149834],[-6.485102898987397]]}},{"weights":{"rows":3,"cols":10,"data":[[-4.069547073900661,3.494308502886592,-2.4717314826840684,0.970919768361078,-1.4924388344933992,-1.7230162661619237,0.010540205988737394,-0.8440881493309034,2.2130203061845606,0.5683143666952644],[6.120355092598009,-7.043406190450508,-2.559852621792558,-3.362627720045287,-9.445299514287068,2.396304997354386,3.425637050038428,-6.964926842445324,-2.7966727455725193,3.076649477360272],[-2.258809672473344,-5.474125832920048,1.6081400456158652,-1.6742917022804784,-3.3828626548131826,-0.02409303850953015,-5.333784871570628,3.2392570246251875,-0.6193508225892128,0.9854658098111806]]},"bias":{"rows":3,"cols":1,"data":[[-0.6990877850287903],[-1.841722199660559],[1.3471404289851092]]}}]});
best.push({"_learningRate":0.1,"layers":[{"nodes":4},{"nodes":10},{"nodes":10},{"nodes":3}],"connections":[{"weights":{"rows":10,"cols":4,"data":[[2.5918085926521153,3.205693508139167,0.7620209939328817,2.7925894807161318],[-1.578580566606923,-13.59796757942557,-3.6579327086562867,-0.010930352563876644],[-6.156203503255661,0.4959797358489844,-5.956116438984752,6.194491406318765],[-0.6296888470033944,-1.43977427679526,-4.231406354546192,-3.4632705537581527],[-0.5696380239472475,-10.848631437540245,0.6084875726662663,4.196158122580711],[1.0459696553983422,5.575726500148028,-3.4807566504503464,-2.7197953662382197],[3.454618014220315,-0.6118565854903439,1.293518640891811,-0.800869593459363],[-0.7520299707021872,0.5203181500146832,-1.6586083535592753,2.0144834184986165],[-3.7268746933626944,6.207179282333542,-2.277197406213211,-2.6679849118856755],[-1.0675118386187008,-2.6012827662889335,2.4356070843828466,-3.749691984202891]]},"bias":{"rows":10,"cols":1,"data":[[-0.22330719191239348],[-0.6357418126302948],[-10.419732242477686],[1.1490714041773804],[-1.5404230533626784],[0.4836953109488011],[-1.0253204021427063],[-2.0086613489532303],[-5.993462717123493],[3.211471101328735]]}},{"weights":{"rows":10,"cols":10,"data":[[0.037911777366002514,7.326084956902011,-4.903367926313347,1.992147303668518,0.07325870995753114,2.226694412113004,-0.7201127119276268,0.351793885764079,2.3955842071020226,-0.6236697323098817],[0.5979759250786153,5.3297849407387705,-1.7220464630339716,1.574155118106225,1.6639675730762657,2.6311903957982485,2.290645584949777,0.5998026475272797,3.4651955158092327,-1.6515994499904467],[1.894233560647791,-4.78343004341151,-6.058213129121476,5.516174967308211,3.7383845545683116,-0.8270582315435194,-1.2211923950616563,-5.913837883137336,-1.3547611622273896,1.7696932782545476],[10.715896525831813,-2.274716138656813,6.851281753341707,1.2857639717393825,5.90375141699857,6.764020601150223,-1.634401735584179,-8.423168332700449,5.834396233153704,-1.1427317124096248],[-2.9633911277471174,2.852928580995065,4.397266700204708,10.023786435965201,2.898676480329379,-4.14318415217659,1.0776795915757462,-2.1109679227522773,-15.355347091252328,5.646783885927409],[0.21118861894305604,-3.303579137815843,9.398172452006467,-1.5769951140346645,-1.241508098225656,4.478016431014698,0.7033433161934957,-7.878268585306772,-3.166597803349287,-0.6289866687560834],[-6.0503492560525665,-9.75807615130092,-5.829040404128331,9.95729084126826,-3.312537994882622,2.147978145590472,-6.431230525583466,0.8653026350098971,0.4129432644140484,4.47861767569764],[2.3879170676301236,-2.1848711634095164,-3.6451012618771665,-0.6942717312098279,-2.3450324802415423,0.6675752034560104,1.0356742047913903,0.6438714406245512,-7.5692657447111324,-1.1459744089908983],[2.7561259444189155,6.553435335379951,5.404819387444525,9.432978024034469,3.0879090965341844,3.235034557558172,3.0774965305794724,2.4292565300645284,-4.074829296791811,-0.36867471941042784],[-4.455823016091439,-6.967428271102538,3.282355639738409,5.854483641746174,3.668076030345114,7.815662580550387,-13.512268728832652,-6.0088107968294775,-0.2472675358931845,-5.717797735341966]]},"bias":{"rows":10,"cols":1,"data":[[-1.9604160138980495],[-7.441631807331753],[-2.1168162361367675],[-0.38487774306523037],[-3.223878964851762],[-5.357833710720379],[-5.9894295189007725],[-0.4518983480764503],[-2.8939796110149834],[-6.485102898987397]]}},{"weights":{"rows":3,"cols":10,"data":[[-4.069547073900661,3.494308502886592,-2.4717314826840684,0.970919768361078,-1.4924388344933992,-1.7230162661619237,0.010540205988737394,-0.8440881493309034,2.2130203061845606,0.5683143666952644],[6.120355092598009,-7.043406190450508,-2.559852621792558,-3.2457966884620877,-9.068945343102008,2.396304997354386,3.425637050038428,-6.964926842445324,-2.7966727455725193,3.076649477360272],[-2.258809672473344,-5.474125832920048,1.6081400456158652,-1.6742917022804784,-3.3828626548131826,-0.02409303850953015,-5.333784871570628,3.207501872131936,-0.6193508225892128,2.04170145078408]]},"bias":{"rows":3,"cols":1,"data":[[-0.6990877850287903],[-1.841722199660559],[1.3471404289851092]]}}]});
best.push({"_learningRate":0.1,"layers":[{"nodes":4},{"nodes":10},{"nodes":10},{"nodes":3}],"connections":[{"weights":{"rows":10,"cols":4,"data":[[2.5918085926521153,3.205693508139167,0.7620209939328817,2.7925894807161318],[-1.578580566606923,-13.59796757942557,-3.6579327086562867,-0.010930352563876644],[-5.0021280533485,0.7030995075309872,-5.956116438984752,2.9881023663414226],[-0.5521178416173532,-1.43977427679526,-4.398968814080859,-3.4632705537581527],[-0.5696380239472475,-10.865811405212497,0.6084875726662663,4.196158122580711],[1.0459696553983422,5.575726500148028,-3.4807566504503464,-2.7197953662382197],[3.454618014220315,-0.6118565854903439,1.293518640891811,-0.800869593459363],[-0.7520299707021872,0.5203181500146832,-1.6586083535592753,2.0144834184986165],[-3.7268746933626944,4.904917134026815,-2.277197406213211,-2.6679849118856755],[-1.0675118386187008,-2.6012827662889335,2.4356070843828466,-3.749691984202891]]},"bias":{"rows":10,"cols":1,"data":[[-0.2152279278625172],[-0.6357418126302948],[-10.419732242477686],[1.1490714041773804],[-1.5404230533626784],[0.4836953109488011],[-1.0253204021427063],[-2.0086613489532303],[-5.993462717123493],[3.211471101328735]]}},{"weights":{"rows":10,"cols":10,"data":[[0.037911777366002514,7.627543871892685,-6.258029409262268,1.6880488099412045,0.07325870995753114,2.226694412113004,-0.7201127119276268,0.351793885764079,2.3955842071020226,-0.6236697323098817],[0.5979759250786153,5.602824681706519,-1.7220464630339716,1.447617445110467,1.6639675730762657,2.6311903957982485,2.290645584949777,0.5998026475272797,3.4677729025014328,-1.6515994499904467],[1.894233560647791,-4.78343004341151,-6.058213129121476,5.516174967308211,3.7383845545683116,-0.8270582315435194,-1.2211923950616563,-5.913837883137336,-0.8952022973601648,1.7696932782545476],[10.715896525831813,-2.274716138656813,6.851281753341707,1.2857639717393825,6.04679887030734,5.591614469640688,-2.7883087369617887,-7.246509194436037,5.834396233153704,-1.6228834898418598],[-2.9633911277471174,2.852928580995065,4.397266700204708,10.023786435965201,2.898676480329379,-4.522860228471749,1.0776795915757462,-1.778799096647682,-15.355347091252328,5.646783885927409],[0.21118861894305604,-3.303579137815843,9.398172452006467,-1.5769951140346645,-1.241508098225656,4.478016431014698,0.7033433161934957,-7.878268585306772,-3.988034765067136,-0.692414061660375],[-6.0503492560525665,-9.75807615130092,-5.829040404128331,9.95729084126826,-3.312537994882622,2.147978145590472,-6.312343207753046,0.8653026350098971,0.4129432644140484,4.47861767569764],[2.3879170676301236,-2.1848711634095164,-3.6451012618771665,-0.6942717312098279,-2.3450324802415423,0.6675752034560104,1.0356742047913903,0.6438714406245512,-7.7840164220374355,-1.1459744089908983],[2.7561259444189155,6.553435335379951,5.404819387444525,9.432978024034469,3.0879090965341844,3.235034557558172,3.0774965305794724,2.4292565300645284,-4.074829296791811,-0.36867471941042784],[-4.455823016091439,-6.967428271102538,4.085446464567781,5.854483641746174,3.668076030345114,7.815662580550387,-13.512268728832652,-6.0088107968294775,-0.2472675358931845,-4.5342865611192185]]},"bias":{"rows":10,"cols":1,"data":[[-1.9604160138980495],[-7.441631807331753],[-2.1168162361367675],[-0.38487774306523037],[-3.223878964851762],[-5.357833710720379],[-5.9894295189007725],[-0.4518983480764503],[-2.8939796110149834],[-6.485102898987397]]}},{"weights":{"rows":3,"cols":10,"data":[[-4.069547073900661,3.494308502886592,-2.4717314826840684,0.970919768361078,-1.4924388344933992,-1.7230162661619237,0.010540205988737394,-0.8440881493309034,2.2130203061845606,0.5683143666952644],[6.120355092598009,-7.756668440211218,-2.559852621792558,-3.2457966884620877,-9.445299514287068,3.5427200634040177,3.425637050038428,-6.964926842445324,-2.7966727455725193,3.076649477360272],[-2.258809672473344,-5.474125832920048,1.6081400456158652,-1.6742917022804784,-3.3828626548131826,-0.02409303850953015,-5.333784871570628,3.2392570246251875,-0.6193508225892128,2.04170145078408]]},"bias":{"rows":3,"cols":1,"data":[[-0.6990877850287903],[-1.841722199660559],[1.3471404289851092]]}}]});
best.push({"_learningRate":0.1,"layers":[{"nodes":4},{"nodes":10},{"nodes":10},{"nodes":3}],"connections":[{"weights":{"rows":10,"cols":4,"data":[[2.5918085926521153,3.205693508139167,0.7620209939328817,2.7925894807161318],[-1.578580566606923,-13.59796757942557,-3.6579327086562867,-0.010930352563876644],[-6.156203503255661,0.7030995075309872,-5.956116438984752,6.194491406318765],[-0.6296888470033944,-1.43977427679526,-4.231406354546192,-3.4632705537581527],[-0.5696380239472475,-10.848631437540245,0.6084875726662663,4.196158122580711],[1.0459696553983422,5.575726500148028,-3.667127812995066,-2.7197953662382197],[3.454618014220315,-0.6118565854903439,1.293518640891811,-0.800869593459363],[-0.7520299707021872,0.5203181500146832,-1.6586083535592753,2.0144834184986165],[-3.7268746933626944,6.207179282333542,-2.277197406213211,-2.6679849118856755],[-1.0675118386187008,-2.6012827662889335,2.4356070843828466,-3.749691984202891]]},"bias":{"rows":10,"cols":1,"data":[[-0.2152279278625172],[-0.6357418126302948],[-10.419732242477686],[1.1490714041773804],[-1.5404230533626784],[0.4836953109488011],[-1.0253204021427063],[-2.0086613489532303],[-5.993462717123493],[3.211471101328735]]}},{"weights":{"rows":10,"cols":10,"data":[[0.037911777366002514,7.627543871892685,-6.258029409262268,1.6880488099412045,0.062263877736299975,2.226694412113004,-0.7201127119276268,0.351793885764079,2.3955842071020226,-0.6236697323098817],[0.5979759250786153,5.3297849407387705,-1.7220464630339716,1.447617445110467,1.6639675730762657,2.6311903957982485,2.290645584949777,0.5998026475272797,3.4651955158092327,-1.6515994499904467],[1.894233560647791,-4.78343004341151,-6.058213129121476,5.516174967308211,3.7383845545683116,-0.8270582315435194,-1.2211923950616563,-5.913837883137336,-0.3143327435434311,1.7696932782545476],[10.715896525831813,-2.274716138656813,6.851281753341707,1.2857639717393825,5.90375141699857,6.764020601150223,-1.634401735584179,-8.423168332700449,5.834396233153704,-0.34561538547721093],[-2.9633911277471174,2.852928580995065,4.397266700204708,10.023786435965201,2.898676480329379,-4.14318415217659,1.0776795915757462,-2.1109679227522773,-15.355347091252328,5.646783885927409],[0.21118861894305604,-3.303579137815843,9.398172452006467,-1.5769951140346645,-1.241508098225656,4.478016431014698,0.7033433161934957,-7.878268585306772,-3.988034765067136,-0.6289866687560834],[-6.0503492560525665,-9.75807615130092,-5.829040404128331,9.95729084126826,-3.312537994882622,2.147978145590472,-6.431230525583466,0.8653026350098971,0.4129432644140484,4.47861767569764],[2.3879170676301236,-2.1848711634095164,-3.6451012618771665,-0.6942717312098279,-2.3450324802415423,0.6675752034560104,1.0356742047913903,0.6438714406245512,-7.5692657447111324,-1.1459744089908983],[2.7561259444189155,6.553435335379951,4.213058868484739,9.432978024034469,3.0879090965341844,3.235034557558172,3.0774965305794724,2.4292565300645284,-4.074829296791811,-0.36867471941042784],[-4.455823016091439,-9.05687586282124,4.656414100383714,6.628426503821433,3.668076030345114,7.815662580550387,-13.512268728832652,-6.0088107968294775,-0.2472675358931845,-5.717797735341966]]},"bias":{"rows":10,"cols":1,"data":[[-1.9604160138980495],[-7.441631807331753],[-2.1168162361367675],[-0.38487774306523037],[-3.223878964851762],[-5.357833710720379],[-5.9894295189007725],[-0.4518983480764503],[-2.8939796110149834],[-6.485102898987397]]}},{"weights":{"rows":3,"cols":10,"data":[[-4.069547073900661,3.494308502886592,-2.4717314826840684,0.970919768361078,-1.4924388344933992,-1.7230162661619237,0.010540205988737394,-0.8440881493309034,2.2130203061845606,0.5683143666952644],[6.120355092598009,-7.043406190450508,-2.559852621792558,-3.2457966884620877,-9.445299514287068,2.396304997354386,3.425637050038428,-6.964926842445324,-2.7966727455725193,3.076649477360272],[-2.258809672473344,-5.474125832920048,1.6081400456158652,-1.6742917022804784,-3.3828626548131826,-0.02409303850953015,-5.333784871570628,3.207501872131936,-0.6193508225892128,2.04170145078408]]},"bias":{"rows":3,"cols":1,"data":[[-0.6990877850287903],[-1.841722199660559],[1.3471404289851092]]}}]});
best.push({"_learningRate":0.1,"layers":[{"nodes":4},{"nodes":10},{"nodes":10},{"nodes":3}],"connections":[{"weights":{"rows":10,"cols":4,"data":[[2.5918085926521153,3.205693508139167,0.7620209939328817,2.7925894807161318],[-1.578580566606923,-13.59796757942557,-3.6579327086562867,-0.010930352563876644],[-5.0021280533485,0.7030995075309872,-5.956116438984752,4.028718070741551],[-0.6296888470033944,-1.43977427679526,-4.398968814080859,-3.4632705537581527],[-0.5696380239472475,-10.848631437540245,0.6084875726662663,4.196158122580711],[1.0459696553983422,5.575726500148028,-3.4807566504503464,-2.7197953662382197],[3.454618014220315,-0.6118565854903439,1.293518640891811,-0.800869593459363],[-0.7520299707021872,0.5203181500146832,-1.6586083535592753,2.0144834184986165],[-3.7268746933626944,4.904917134026815,-2.277197406213211,-2.0427820523221234],[-1.0675118386187008,-2.6012827662889335,2.4356070843828466,-3.749691984202891]]},"bias":{"rows":10,"cols":1,"data":[[-0.2152279278625172],[-0.6357418126302948],[-10.419732242477686],[1.1490714041773804],[-1.5404230533626784],[0.4836953109488011],[-1.0253204021427063],[-2.0086613489532303],[-5.993462717123493],[3.211471101328735]]}},{"weights":{"rows":10,"cols":10,"data":[[0.037911777366002514,7.627543871892685,-6.258029409262268,1.6880488099412045,0.07325870995753114,2.226694412113004,-0.7201127119276268,0.351793885764079,2.3955842071020226,-0.6236697323098817],[0.5979759250786153,5.602824681706519,-1.7220464630339716,1.447617445110467,1.6639675730762657,2.6311903957982485,2.290645584949777,0.5998026475272797,3.4651955158092327,-1.6515994499904467],[1.894233560647791,-4.78343004341151,-6.058213129121476,5.516174967308211,3.7383845545683116,-0.8270582315435194,-1.2211923950616563,-5.913837883137336,-0.8952022973601648,1.7696932782545476],[10.715896525831813,-2.274716138656813,6.851281753341707,1.2857639717393825,5.90375141699857,5.591614469640688,-2.7883087369617887,-7.246509194436037,5.834396233153704,-1.1427317124096248],[-2.9633911277471174,2.852928580995065,4.397266700204708,10.023786435965201,2.898676480329379,-4.14318415217659,1.0776795915757462,-1.778799096647682,-15.355347091252328,5.646783885927409],[0.21118861894305604,-3.303579137815843,9.398172452006467,-1.5769951140346645,-1.241508098225656,4.478016431014698,0.7033433161934957,-7.878268585306772,-3.988034765067136,-0.6289866687560834],[-6.0503492560525665,-9.75807615130092,-5.829040404128331,9.95729084126826,-3.312537994882622,2.147978145590472,-6.431230525583466,0.8653026350098971,0.4129432644140484,4.47861767569764],[2.3879170676301236,-2.1848711634095164,-3.6451012618771665,-0.6942717312098279,-2.3450324802415423,0.6675752034560104,1.0356742047913903,0.6438714406245512,-7.7840164220374355,-1.1459744089908983],[2.7561259444189155,6.553435335379951,5.404819387444525,9.432978024034469,3.0879090965341844,3.235034557558172,3.0774965305794724,2.4292565300645284,-4.074829296791811,-0.36867471941042784],[-4.455823016091439,-6.967428271102538,4.085446464567781,5.227420572671018,3.668076030345114,7.815662580550387,-13.512268728832652,-6.0088107968294775,-0.2472675358931845,-4.5342865611192185]]},"bias":{"rows":10,"cols":1,"data":[[-1.9604160138980495],[-7.441631807331753],[-2.1168162361367675],[-0.3421271266365275],[-3.223878964851762],[-5.357833710720379],[-5.9894295189007725],[-0.4518983480764503],[-2.8939796110149834],[-6.485102898987397]]}},{"weights":{"rows":3,"cols":10,"data":[[-4.069547073900661,3.494308502886592,-2.4717314826840684,0.970919768361078,-1.4924388344933992,-1.7230162661619237,0.010540205988737394,-0.8440881493309034,2.2130203061845606,0.5683143666952644],[6.120355092598009,-7.043406190450508,-2.559852621792558,-3.362627720045287,-9.445299514287068,2.396304997354386,3.425637050038428,-6.964926842445324,-2.7966727455725193,3.076649477360272],[-2.258809672473344,-5.474125832920048,1.6081400456158652,-1.6742917022804784,-3.3828626548131826,-0.02409303850953015,-5.333784871570628,3.2392570246251875,-0.6193508225892128,2.04170145078408]]},"bias":{"rows":3,"cols":1,"data":[[-0.6990877850287903],[-1.841722199660559],[1.3471404289851092]]}}]});
best.push({"_learningRate":0.1,"layers":[{"nodes":4},{"nodes":10},{"nodes":10},{"nodes":3}],"connections":[{"weights":{"rows":10,"cols":4,"data":[[2.5918085926521153,3.205693508139167,0.7620209939328817,2.7925894807161318],[-1.578580566606923,-13.59796757942557,-3.6579327086562867,-0.010930352563876644],[-6.156203503255661,0.7030995075309872,-5.956116438984752,6.194491406318765],[-0.6296888470033944,-1.43977427679526,-4.231406354546192,-3.4632705537581527],[-0.5696380239472475,-10.848631437540245,0.6084875726662663,4.196158122580711],[1.0459696553983422,5.575726500148028,-3.4807566504503464,-2.7197953662382197],[3.454618014220315,-0.6118565854903439,1.293518640891811,-0.800869593459363],[-0.7520299707021872,0.5203181500146832,-1.6586083535592753,2.0144834184986165],[-3.7268746933626944,6.207179282333542,-2.277197406213211,-2.6679849118856755],[-1.0675118386187008,-2.6012827662889335,2.4356070843828466,-3.749691984202891]]},"bias":{"rows":10,"cols":1,"data":[[-0.2152279278625172],[-0.6357418126302948],[-10.419732242477686],[1.1490714041773804],[-1.5404230533626784],[0.4836953109488011],[-1.0253204021427063],[-2.0086613489532303],[-5.993462717123493],[3.211471101328735]]}},{"weights":{"rows":10,"cols":10,"data":[[0.037911777366002514,7.627543871892685,-6.258029409262268,1.6880488099412045,0.062263877736299975,2.226694412113004,-0.7201127119276268,0.351793885764079,2.3955842071020226,-0.6236697323098817],[0.5979759250786153,5.3297849407387705,-1.7220464630339716,1.447617445110467,1.6639675730762657,2.6311903957982485,2.290645584949777,0.5998026475272797,3.4651955158092327,-1.6515994499904467],[1.894233560647791,-4.78343004341151,-6.058213129121476,5.516174967308211,3.7383845545683116,-0.8270582315435194,-1.2211923950616563,-5.913837883137336,-0.3143327435434311,1.7696932782545476],[10.715896525831813,-2.274716138656813,6.851281753341707,1.2857639717393825,5.90375141699857,6.764020601150223,-1.634401735584179,-8.423168332700449,5.834396233153704,-1.1427317124096248],[-2.9633911277471174,2.852928580995065,4.397266700204708,10.023786435965201,2.898676480329379,-4.14318415217659,1.0776795915757462,-2.1109679227522773,-15.355347091252328,5.646783885927409],[0.21118861894305604,-3.303579137815843,9.398172452006467,-1.5769951140346645,-1.241508098225656,4.478016431014698,0.7033433161934957,-7.878268585306772,-3.988034765067136,-0.6289866687560834],[-6.0503492560525665,-9.75807615130092,-5.829040404128331,9.95729084126826,-3.312537994882622,2.147978145590472,-6.431230525583466,0.8653026350098971,0.4129432644140484,4.47861767569764],[2.3879170676301236,-2.1848711634095164,-3.6451012618771665,-0.6942717312098279,-2.3450324802415423,0.6675752034560104,1.0356742047913903,0.6438714406245512,-7.5692657447111324,-1.1459744089908983],[2.7561259444189155,6.553435335379951,5.404819387444525,9.432978024034469,3.0879090965341844,3.235034557558172,3.0774965305794724,2.4292565300645284,-4.074829296791811,-0.36867471941042784],[-4.455823016091439,-6.967428271102538,4.656414100383714,6.628426503821433,3.668076030345114,7.815662580550387,-13.512268728832652,-6.0088107968294775,-0.2472675358931845,-5.717797735341966]]},"bias":{"rows":10,"cols":1,"data":[[-1.9604160138980495],[-7.441631807331753],[-2.1168162361367675],[-0.38487774306523037],[-3.223878964851762],[-5.357833710720379],[-5.9894295189007725],[-0.4518983480764503],[-2.8939796110149834],[-6.485102898987397]]}},{"weights":{"rows":3,"cols":10,"data":[[-4.069547073900661,3.494308502886592,-2.4717314826840684,0.970919768361078,-1.4924388344933992,-1.7230162661619237,0.010540205988737394,-0.8440881493309034,2.2130203061845606,0.5683143666952644],[6.120355092598009,-7.043406190450508,-2.559852621792558,-3.2457966884620877,-9.445299514287068,2.396304997354386,3.425637050038428,-6.964926842445324,-2.7966727455725193,3.076649477360272],[-2.258809672473344,-5.474125832920048,1.6081400456158652,-1.6742917022804784,-3.3828626548131826,-0.02409303850953015,-5.333784871570628,3.207501872131936,-0.6193508225892128,2.04170145078408]]},"bias":{"rows":3,"cols":1,"data":[[-0.6990877850287903],[-1.841722199660559],[1.3471404289851092]]}}]});
best.push({"_learningRate":0.1,"layers":[{"nodes":4},{"nodes":10},{"nodes":10},{"nodes":3}],"connections":[{"weights":{"rows":10,"cols":4,"data":[[2.5918085926521153,3.205693508139167,0.7620209939328817,2.7925894807161318],[-1.578580566606923,-13.59796757942557,-3.6579327086562867,-0.010930352563876644],[-6.156203503255661,0.7030995075309872,-5.956116438984752,6.194491406318765],[-0.6296888470033944,-1.43977427679526,-4.231406354546192,-3.4632705537581527],[-0.5696380239472475,-10.848631437540245,0.6084875726662663,4.196158122580711],[1.0459696553983422,5.575726500148028,-3.4807566504503464,-2.7197953662382197],[3.454618014220315,-0.6118565854903439,1.293518640891811,-0.800869593459363],[-0.7520299707021872,0.5203181500146832,-1.6586083535592753,2.0144834184986165],[-3.7268746933626944,6.207179282333542,-2.277197406213211,-2.6679849118856755],[-1.0675118386187008,-2.6012827662889335,2.4356070843828466,-3.749691984202891]]},"bias":{"rows":10,"cols":1,"data":[[-0.2152279278625172],[-0.6357418126302948],[-10.419732242477686],[1.1490714041773804],[-1.5404230533626784],[0.4836953109488011],[-1.0253204021427063],[-2.0086613489532303],[-5.993462717123493],[3.211471101328735]]}},{"weights":{"rows":10,"cols":10,"data":[[0.037911777366002514,7.627543871892685,-6.258029409262268,1.6880488099412045,0.062263877736299975,2.226694412113004,-0.7201127119276268,0.351793885764079,2.3955842071020226,-0.6236697323098817],[0.5979759250786153,5.3297849407387705,-1.7220464630339716,1.447617445110467,1.6639675730762657,2.6311903957982485,2.290645584949777,0.5998026475272797,3.4651955158092327,-1.6515994499904467],[1.894233560647791,-4.78343004341151,-6.058213129121476,5.516174967308211,3.7383845545683116,-0.8270582315435194,-1.2211923950616563,-5.913837883137336,-0.3143327435434311,1.7696932782545476],[10.715896525831813,-2.274716138656813,6.851281753341707,1.2857639717393825,5.90375141699857,6.764020601150223,-1.634401735584179,-8.423168332700449,5.834396233153704,-1.1427317124096248],[-2.9633911277471174,2.852928580995065,4.784890747669123,10.023786435965201,2.898676480329379,-4.14318415217659,1.0776795915757462,-2.1109679227522773,-15.355347091252328,5.646783885927409],[0.21118861894305604,-3.303579137815843,9.398172452006467,-1.5769951140346645,-1.241508098225656,4.478016431014698,0.7033433161934957,-7.878268585306772,-3.988034765067136,-0.6289866687560834],[-6.0503492560525665,-9.75807615130092,-5.829040404128331,9.95729084126826,-3.312537994882622,2.147978145590472,-6.431230525583466,0.8653026350098971,0.4129432644140484,4.47861767569764],[2.3879170676301236,-2.1848711634095164,-3.6451012618771665,-0.6942717312098279,-2.3450324802415423,0.6675752034560104,1.0356742047913903,0.6438714406245512,-7.5692657447111324,-1.1459744089908983],[2.7561259444189155,6.553435335379951,5.404819387444525,9.432978024034469,3.0879090965341844,3.235034557558172,3.0774965305794724,2.4292565300645284,-4.074829296791811,-0.36867471941042784],[-4.455823016091439,-6.967428271102538,4.656414100383714,6.628426503821433,3.668076030345114,7.815662580550387,-13.512268728832652,-6.0088107968294775,-0.2472675358931845,-5.717797735341966]]},"bias":{"rows":10,"cols":1,"data":[[-1.9604160138980495],[-7.441631807331753],[-2.1168162361367675],[-0.38487774306523037],[-3.223878964851762],[-5.357833710720379],[-5.9894295189007725],[-0.4518983480764503],[-2.8939796110149834],[-6.485102898987397]]}},{"weights":{"rows":3,"cols":10,"data":[[-4.069547073900661,3.494308502886592,-2.4717314826840684,0.970919768361078,-1.4924388344933992,-1.7230162661619237,0.010540205988737394,-0.8440881493309034,2.2130203061845606,0.5683143666952644],[6.120355092598009,-7.043406190450508,-2.559852621792558,-3.2457966884620877,-9.445299514287068,2.396304997354386,3.425637050038428,-6.964926842445324,-2.7966727455725193,5.3143030339876045],[-2.258809672473344,-5.474125832920048,1.6081400456158652,-1.6742917022804784,-3.3828626548131826,-0.02409303850953015,-5.333784871570628,3.207501872131936,-0.6193508225892128,2.04170145078408]]},"bias":{"rows":3,"cols":1,"data":[[-0.6990877850287903],[-1.841722199660559],[1.3471404289851092]]}}]});
best.push({"_learningRate":0.1,"layers":[{"nodes":4},{"nodes":10},{"nodes":10},{"nodes":3}],"connections":[{"weights":{"rows":10,"cols":4,"data":[[2.5918085926521153,3.205693508139167,0.7620209939328817,2.7925894807161318],[-1.578580566606923,-13.59796757942557,-3.6579327086562867,-0.010930352563876644],[-5.0021280533485,0.7030995075309872,-5.956116438984752,4.028718070741551],[-0.6296888470033944,-1.43977427679526,-4.398968814080859,-3.4632705537581527],[-0.5696380239472475,-10.848631437540245,0.6084875726662663,4.196158122580711],[1.0459696553983422,5.575726500148028,-3.4807566504503464,-2.7197953662382197],[3.454618014220315,-1.10861383837142,1.293518640891811,-0.800869593459363],[-0.7520299707021872,0.5203181500146832,-1.6586083535592753,2.0144834184986165],[-3.7268746933626944,4.904917134026815,-2.277197406213211,-2.6679849118856755],[-1.0675118386187008,-2.6012827662889335,2.4356070843828466,-3.749691984202891]]},"bias":{"rows":10,"cols":1,"data":[[-0.2152279278625172],[-0.6357418126302948],[-10.419732242477686],[1.1490714041773804],[-1.5404230533626784],[0.4836953109488011],[-1.0253204021427063],[-2.0086613489532303],[-5.993462717123493],[3.211471101328735]]}},{"weights":{"rows":10,"cols":10,"data":[[0.037911777366002514,6.8558698059167105,-6.258029409262268,1.6880488099412045,0.07325870995753114,2.226694412113004,-0.7201127119276268,0.351793885764079,2.3955842071020226,-0.6236697323098817],[0.5979759250786153,5.602824681706519,-1.7220464630339716,1.447617445110467,1.6639675730762657,2.6311903957982485,2.290645584949777,0.5998026475272797,3.4651955158092327,-1.6515994499904467],[1.894233560647791,-4.78343004341151,-6.058213129121476,5.516174967308211,3.7383845545683116,-0.8270582315435194,-1.2211923950616563,-5.913837883137336,-0.8952022973601648,1.7696932782545476],[10.715896525831813,-2.274716138656813,6.851281753341707,1.2857639717393825,5.90375141699857,5.591614469640688,-2.7883087369617887,-7.246509194436037,5.834396233153704,-1.1427317124096248],[-2.9633911277471174,2.852928580995065,4.397266700204708,10.023786435965201,2.898676480329379,-4.14318415217659,1.0776795915757462,-1.778799096647682,-15.355347091252328,5.646783885927409],[0.21118861894305604,-3.303579137815843,9.398172452006467,-1.5769951140346645,-1.241508098225656,4.478016431014698,0.7033433161934957,-7.878268585306772,-3.988034765067136,-0.6289866687560834],[-6.0503492560525665,-9.75807615130092,-5.829040404128331,9.95729084126826,-3.312537994882622,2.147978145590472,-6.336508571987311,0.8653026350098971,0.4129432644140484,4.47861767569764],[2.3879170676301236,-2.1848711634095164,-3.6451012618771665,-0.6942717312098279,-2.3450324802415423,0.6675752034560104,1.0356742047913903,0.6438714406245512,-7.7840164220374355,-1.1459744089908983],[2.7561259444189155,6.553435335379951,5.404819387444525,9.432978024034469,3.0879090965341844,3.235034557558172,3.0774965305794724,2.4292565300645284,-4.074829296791811,-0.36867471941042784],[-4.455823016091439,-6.967428271102538,4.085446464567781,5.854483641746174,3.668076030345114,7.815662580550387,-13.512268728832652,-6.0088107968294775,-0.2472675358931845,-4.5342865611192185]]},"bias":{"rows":10,"cols":1,"data":[[-1.9604160138980495],[-7.441631807331753],[-2.1168162361367675],[-0.38487774306523037],[-3.223878964851762],[-5.357833710720379],[-5.9894295189007725],[-0.4518983480764503],[-2.8939796110149834],[-6.485102898987397]]}},{"weights":{"rows":3,"cols":10,"data":[[-4.069547073900661,4.5150296768076155,-2.4717314826840684,0.970919768361078,-1.4924388344933992,-1.7230162661619237,0.010540205988737394,-0.8440881493309034,2.2130203061845606,0.5683143666952644],[6.120355092598009,-7.043406190450508,-2.559852621792558,-3.2457966884620877,-9.445299514287068,2.397460907760323,3.425637050038428,-6.964926842445324,-2.7966727455725193,3.076649477360272],[-2.258809672473344,-5.474125832920048,1.6081400456158652,-1.6742917022804784,-3.3828626548131826,-0.02409303850953015,-5.333784871570628,3.2392570246251875,-0.6193508225892128,2.04170145078408]]},"bias":{"rows":3,"cols":1,"data":[[-0.6990877850287903],[-1.4794484632911715],[1.3471404289851092]]}}]});
best.push({"_learningRate":0.1,"layers":[{"nodes":4},{"nodes":10},{"nodes":10},{"nodes":3}],"connections":[{"weights":{"rows":10,"cols":4,"data":[[2.5918085926521153,3.205693508139167,0.7620209939328817,2.7925894807161318],[-1.578580566606923,-13.59796757942557,-3.6579327086562867,-0.010930352563876644],[-6.156203503255661,0.4959797358489844,-5.956116438984752,5.178890325966343],[-2.426630579612328,-1.43977427679526,-4.231406354546192,-3.4632705537581527],[-0.5696380239472475,-10.848631437540245,0.6084875726662663,4.196158122580711],[1.0459696553983422,5.575726500148028,-3.4807566504503464,-2.7197953662382197],[3.454618014220315,-0.6118565854903439,1.293518640891811,-0.800869593459363],[-0.7520299707021872,0.5203181500146832,-1.6586083535592753,2.0144834184986165],[-3.7268746933626944,6.207179282333542,-2.277197406213211,-2.6679849118856755],[-1.0675118386187008,-2.6012827662889335,2.4356070843828466,-3.749691984202891]]},"bias":{"rows":10,"cols":1,"data":[[-0.22330719191239348],[-0.6357418126302948],[-10.419732242477686],[1.1490714041773804],[-1.5404230533626784],[0.4836953109488011],[-1.0253204021427063],[-2.0086613489532303],[-5.993462717123493],[3.211471101328735]]}},{"weights":{"rows":10,"cols":10,"data":[[0.037911777366002514,7.326084956902011,-6.258029409262268,1.992147303668518,0.07325870995753114,2.226694412113004,-0.7201127119276268,0.351793885764079,2.3955842071020226,-0.6236697323098817],[0.5979759250786153,5.3297849407387705,-1.7220464630339716,1.447617445110467,1.6639675730762657,2.6311903957982485,2.290645584949777,0.5998026475272797,3.4651955158092327,-1.6515994499904467],[1.894233560647791,-4.78343004341151,-5.971315048687748,5.516174967308211,3.7383845545683116,-0.8270582315435194,-1.2211923950616563,-5.913837883137336,-1.3547611622273896,1.7696932782545476],[10.715896525831813,-2.274716138656813,6.851281753341707,0.8702096992521355,5.90375141699857,6.764020601150223,-1.634401735584179,-8.423168332700449,5.834396233153704,-1.1427317124096248],[-2.9633911277471174,2.852928580995065,4.397266700204708,10.023786435965201,2.898676480329379,-4.14318415217659,1.0776795915757462,-2.1109679227522773,-15.355347091252328,5.646783885927409],[0.21118861894305604,-3.303579137815843,9.398172452006467,-1.5769951140346645,-1.241508098225656,4.478016431014698,0.7033433161934957,-7.878268585306772,-3.166597803349287,-0.6289866687560834],[-6.0503492560525665,-9.75807615130092,-5.829040404128331,9.95729084126826,-3.461936672092511,2.147978145590472,-6.431230525583466,0.8653026350098971,0.4129432644140484,4.47861767569764],[2.3879170676301236,-2.1848711634095164,-3.6451012618771665,-0.6942717312098279,-2.3450324802415423,0.6675752034560104,1.0356742047913903,0.6438714406245512,-7.5692657447111324,-1.1459744089908983],[2.3773620292335416,6.553435335379951,5.404819387444525,9.432978024034469,3.0879090965341844,3.235034557558172,3.0774965305794724,2.4292565300645284,-4.074829296791811,-0.36867471941042784],[-4.455823016091439,-7.0276475248125445,3.282355639738409,5.854483641746174,3.3215208533144445,7.815662580550387,-14.7100980509304,-6.0088107968294775,-0.2472675358931845,-5.717797735341966]]},"bias":{"rows":10,"cols":1,"data":[[-1.9604160138980495],[-7.441631807331753],[-2.1168162361367675],[-0.38487774306523037],[-3.223878964851762],[-5.357833710720379],[-5.9828622958810325],[-0.4518983480764503],[-2.8939796110149834],[-6.485102898987397]]}},{"weights":{"rows":3,"cols":10,"data":[[-4.069547073900661,3.494308502886592,-2.4717314826840684,0.970919768361078,-1.4924388344933992,-1.7230162661619237,0.010540205988737394,-0.8440881493309034,2.2130203061845606,0.9061311411971504],[6.120355092598009,-7.043406190450508,-2.559852621792558,-3.2457966884620877,-9.068945343102008,2.396304997354386,3.425637050038428,-6.964926842445324,-2.7966727455725193,3.076649477360272],[-2.258809672473344,-5.474125832920048,1.6081400456158652,-1.6742917022804784,-3.3828626548131826,-0.02409303850953015,-5.333784871570628,3.207501872131936,-0.6193508225892128,2.04170145078408]]},"bias":{"rows":3,"cols":1,"data":[[-0.6990877850287903],[-1.841722199660559],[1.3471404289851092]]}}]});
best.push({"_learningRate":0.1,"layers":[{"nodes":4},{"nodes":10},{"nodes":10},{"nodes":3}],"connections":[{"weights":{"rows":10,"cols":4,"data":[[2.5918085926521153,3.205693508139167,0.7620209939328817,2.7925894807161318],[-1.578580566606923,-13.59796757942557,-3.6579327086562867,-0.010930352563876644],[-6.156203503255661,0.4959797358489844,-5.956116438984752,5.178890325966343],[-2.426630579612328,-0.34350413269339786,-4.231406354546192,-3.4632705537581527],[-0.5696380239472475,-10.162987205609165,0.6084875726662663,4.196158122580711],[1.0459696553983422,5.575726500148028,-3.5075674926182705,-2.7197953662382197],[3.454618014220315,-0.6118565854903439,1.293518640891811,-0.800869593459363],[-0.7520299707021872,0.5203181500146832,-1.6586083535592753,2.0144834184986165],[-3.7268746933626944,6.207179282333542,-2.277197406213211,-2.6679849118856755],[-1.0675118386187008,-2.6012827662889335,2.4356070843828466,-3.749691984202891]]},"bias":{"rows":10,"cols":1,"data":[[-0.22330719191239348],[-0.6357418126302948],[-10.419732242477686],[1.1490714041773804],[-1.5404230533626784],[0.4836953109488011],[-1.0253204021427063],[-2.0086613489532303],[-5.993462717123493],[3.211471101328735]]}},{"weights":{"rows":10,"cols":10,"data":[[0.037911777366002514,7.326084956902011,-6.258029409262268,1.992147303668518,0.07325870995753114,2.226694412113004,-0.7201127119276268,0.351793885764079,2.3955842071020226,-0.6236697323098817],[0.5979759250786153,5.3297849407387705,-1.7220464630339716,1.447617445110467,1.6639675730762657,2.6311903957982485,2.290645584949777,0.5998026475272797,3.4651955158092327,-1.6515994499904467],[1.894233560647791,-4.78343004341151,-5.971315048687748,5.516174967308211,3.7383845545683116,-0.8270582315435194,-1.2211923950616563,-5.913837883137336,-1.3547611622273896,1.7696932782545476],[10.715896525831813,-2.6369647321375176,8.916199594178112,0.8702096992521355,5.90375141699857,6.764020601150223,-1.634401735584179,-8.423168332700449,5.834396233153704,-1.1427317124096248],[-2.9633911277471174,2.852928580995065,4.397266700204708,10.023786435965201,2.898676480329379,-4.14318415217659,1.0776795915757462,-2.1109679227522773,-15.355347091252328,5.646783885927409],[0.21118861894305604,-3.303579137815843,9.398172452006467,-0.6672779414560137,-1.241508098225656,4.478016431014698,0.7033433161934957,-7.878268585306772,-3.166597803349287,-0.6289866687560834],[-6.0503492560525665,-9.75807615130092,-5.829040404128331,9.95729084126826,-1.1353183060362158,2.147978145590472,-6.431230525583466,0.8653026350098971,0.4129432644140484,4.47861767569764],[2.3879170676301236,-2.1848711634095164,-3.6451012618771665,-0.6942717312098279,-2.3450324802415423,0.6675752034560104,1.0356742047913903,0.6438714406245512,-7.5692657447111324,-1.1459744089908983],[2.3773620292335416,6.553435335379951,5.404819387444525,9.432978024034469,3.0879090965341844,3.235034557558172,3.0774965305794724,2.4292565300645284,-4.074829296791811,-0.36867471941042784],[-4.455823016091439,-7.0276475248125445,3.282355639738409,5.854483641746174,3.3215208533144445,7.683414052140696,-14.7100980509304,-6.0088107968294775,-0.2472675358931845,-5.717797735341966]]},"bias":{"rows":10,"cols":1,"data":[[-1.9604160138980495],[-7.441631807331753],[-2.1168162361367675],[-0.38487774306523037],[-3.223878964851762],[-5.357833710720379],[-5.9828622958810325],[-0.4518983480764503],[-2.8939796110149834],[-6.485102898987397]]}},{"weights":{"rows":3,"cols":10,"data":[[-4.069547073900661,3.494308502886592,-2.4717314826840684,0.970919768361078,-1.4924388344933992,-1.7230162661619237,0.010540205988737394,-0.8440881493309034,2.2130203061845606,0.9061311411971504],[6.120355092598009,-7.043406190450508,-2.559852621792558,-3.2457966884620877,-9.068945343102008,2.396304997354386,3.425637050038428,-7.1708032311529,-2.7966727455725193,3.076649477360272],[-2.258809672473344,-5.474125832920048,1.6081400456158652,-1.6742917022804784,-3.3828626548131826,-0.02409303850953015,-5.333784871570628,3.207501872131936,-0.6193508225892128,2.04170145078408]]},"bias":{"rows":3,"cols":1,"data":[[-0.6990877850287903],[-1.841722199660559],[1.3471404289851092]]}}]});
