let best = [];

nnShape =  [ 4,10,10,3 ];

best.push({"_learningRate":0.1,"layers":[{"nodes":4},{"nodes":10},{"nodes":10},{"nodes":3}],"connections":[{"weights":{"rows":10,"cols":4,"data":[[-0.1631989273826673,0.7982174543711809,-0.5276893877856437,-0.3875276947468951],[0.5647944885474132,1.3017865434632505,0.22800232669884662,-0.5040188149187776],[0.47289095292654615,-0.026432986342144638,0.7955798878143607,0.6655018833271864],[-0.8630249810850219,-0.8203177129670225,-0.37418015289949924,-0.009449897995583711],[-1.1980071959210812,0.4946634462777854,0.6813489186010901,-1.5272163887095034],[-0.0071260227117732056,0.21630179255872659,0.2643151180565156,-0.3275406554687012],[-0.33463574142470687,5.330099399864756,-0.4085156437389137,-0.9466222058774656],[-0.37412755888188487,0.894266741535039,0.7741595251011275,0.8591760847602007],[-0.037656195150145066,-1.2218640197022852,0.7864758506887082,-0.951840790903304],[0.8707848094303685,0.044419340446059,0.8155333940864384,-0.9457547476939823]]},"bias":{"rows":10,"cols":1,"data":[[0.558089589568338],[0.04605668975664701],[-0.9985848088695386],[0.7295798365022264],[-0.5798305401071427],[-0.20551346339137888],[0.8909751761693019],[-0.770784481431301],[0.4465008954029326],[0.9824760299878621]]}},{"weights":{"rows":10,"cols":10,"data":[[-0.4728891853620878,-0.12229052743931579,0.6452433232372714,0.32914630671668416,0.22597671019046928,-0.6357860772024373,-0.5486858817104605,-0.2250789709440748,0.2082055358891286,-0.7450139816410575],[0.9724430745843398,0.5905719205510165,0.2698579285709011,-0.9200862349495164,-0.8953016283670632,-0.7638092516449597,0.047898154423392736,0.2511903662110244,0.4246059969556435,0.4139208373439347],[0.5575110235965246,-0.47310606637083996,1.0183260713501738,-0.5971654457515232,-0.03360739681673852,-0.951223784736889,0.9934180144569021,-0.113243315801581,-0.09651136504018032,0.37769286147042314],[0.35560262820482874,0.12029612315606508,0.9759736586300329,0.13394192050307852,0.31136722681068374,-0.5255450812042057,0.9119647841628109,-0.14782746295777283,0.8950306515280029,0.7184363451801232],[0.563240200276824,-0.8508938305642144,-0.8272887249822953,0.8200192653073581,0.8232316792952399,0.3538922457026423,0.5793008937569835,0.17632248789416982,-0.26112477058118777,0.33264920382174257],[0.855756134685365,0.628922296193771,-0.4901436777670338,-0.8353077450194615,0.7414853143106508,0.20615689907457257,0.6908228221342183,0.9230937307061913,0.13582465723000325,-0.9222720401224231],[0.9204751309970285,0.20562369684992632,1.7824261981331369,-0.7192075679396668,0.7415610386527253,0.594597076664396,-0.045260796846395834,-0.21236009064514016,-0.7582873034608433,-0.4824489482787384],[0.7325188436641019,0.8186734191861516,-0.6845044767657509,-0.10796614043041819,-0.188307733874721,0.8604183135191628,0.5645822904736422,-0.41011727837986056,-0.5748514645681166,-0.4867611733444548],[0.39041013326451035,-0.5870447445370562,0.8987641533983273,-0.3702152636596816,-0.08265506208462912,-0.583637696304935,0.8181591474291814,0.5996494475056697,0.7517623987788826,-0.6065981094648247],[-0.3395426322738957,-0.867852940308476,0.7014351228964779,-0.19232281515829808,0.8102820790231897,0.5077846702446904,0.2797575395723893,-0.29991816638849844,0.4142444660760826,0.8454821465324032]]},"bias":{"rows":10,"cols":1,"data":[[-0.5373255504161323],[-0.38867640534722536],[-0.12127730750907695],[-0.8930549532071463],[0.9128098652818948],[0.41261960912118445],[0.3795978842873091],[0.6336288609215521],[-0.22204428513856422],[-0.4516989482898257]]}},{"weights":{"rows":3,"cols":10,"data":[[-0.24314511473183797,0.34919272514297317,-0.4651634789611414,-0.05144152586491746,-0.6938869536721728,0.8789603085433728,-0.6833204347905681,-0.0878439543273064,0.27748122227341776,-0.01717130322985483],[0.6883466268052061,0.19034892161891026,-0.5886028510775279,0.04417416909763139,0.44368449879664684,-0.7719854845181562,-0.8511057381701872,-0.4241997177217658,0.11098512316176334,0.9195208915492791],[0.3889504870640059,0.35176656812883733,-0.3083603352328663,0.24181317410405834,0.545655367015613,-0.548965737712491,0.22299428216675432,-0.9061527171451176,-0.29568269255361956,0.6809795865321266]]},"bias":{"rows":3,"cols":1,"data":[[0.5164071699707455],[0.7664065324789608],[0.45310082979623445]]}}]});
best.push({"_learningRate":0.1,"layers":[{"nodes":4},{"nodes":10},{"nodes":10},{"nodes":3}],"connections":[{"weights":{"rows":10,"cols":4,"data":[[-0.1631989273826673,0.7982174543711809,-0.5276893877856437,-0.3875276947468951],[0.5647944885474132,1.3017865434632505,0.22800232669884662,-0.5040188149187776],[0.47289095292654615,-0.026432986342144638,0.7955798878143607,0.6398180918032543],[-0.8630249810850219,-0.8203177129670225,-0.37418015289949924,-0.009449897995583711],[-1.1980071959210812,0.4946634462777854,0.6813489186010901,-1.5272163887095034],[-0.0071260227117732056,0.21630179255872659,0.2643151180565156,-0.3275406554687012],[-0.33463574142470687,5.330099399864756,-0.4085156437389137,-0.9466222058774656],[-0.37412755888188487,0.894266741535039,0.7741595251011275,0.8591760847602007],[-0.037656195150145066,-1.2218640197022852,0.7864758506887082,-0.951840790903304],[0.8707848094303685,0.044419340446059,0.8155333940864384,-0.9457547476939823]]},"bias":{"rows":10,"cols":1,"data":[[0.558089589568338],[0.04605668975664701],[-0.9985848088695386],[0.7295798365022264],[-0.5798305401071427],[-0.20551346339137888],[0.8909751761693019],[-0.770784481431301],[0.4465008954029326],[0.9824760299878621]]}},{"weights":{"rows":10,"cols":10,"data":[[-0.4728891853620878,-0.12229052743931579,0.6452433232372714,0.32914630671668416,0.22597671019046928,-0.6357860772024373,-0.5486858817104605,-0.2250789709440748,0.2082055358891286,-0.7450139816410575],[0.9724430745843398,0.5905719205510165,0.2698579285709011,-0.9200862349495164,-0.915588509010552,-0.7638092516449597,0.047898154423392736,0.2511903662110244,0.4246059969556435,0.4139208373439347],[0.5575110235965246,-0.47310606637083996,1.0183260713501738,-0.5971654457515232,-0.03360739681673852,-0.951223784736889,0.9934180144569021,-0.113243315801581,-0.09651136504018032,0.37769286147042314],[0.35560262820482874,0.12029612315606508,0.9759736586300329,0.13394192050307852,0.31136722681068374,-0.5255450812042057,0.9119647841628109,-0.14782746295777283,0.8950306515280029,0.7184363451801232],[0.563240200276824,-0.8508938305642144,-0.8272887249822953,0.8200192653073581,0.8232316792952399,0.3538922457026423,0.5793008937569835,0.17632248789416982,-0.26112477058118777,0.33264920382174257],[0.855756134685365,0.628922296193771,-0.4901436777670338,-0.8353077450194615,0.7414853143106508,0.20615689907457257,0.6908228221342183,0.9230937307061913,0.13582465723000325,-0.9222720401224231],[0.9204751309970285,0.20562369684992632,1.7824261981331369,-0.7192075679396668,0.7415610386527253,0.594597076664396,-0.045260796846395834,-0.21236009064514016,-0.7582873034608433,-0.4824489482787384],[0.7325188436641019,0.8186734191861516,-0.6845044767657509,-0.10796614043041819,-0.188307733874721,0.8604183135191628,0.5645822904736422,-0.41011727837986056,-0.5748514645681166,-0.4867611733444548],[0.39041013326451035,-0.5870447445370562,0.8987641533983273,-0.3702152636596816,-0.08265506208462912,-0.583637696304935,0.8181591474291814,0.5996494475056697,0.7517623987788826,-0.6065981094648247],[-0.3395426322738957,-0.867852940308476,0.7014351228964779,-0.19232281515829808,0.8102820790231897,0.5077846702446904,0.2797575395723893,-0.2954813025991622,0.4142444660760826,0.8454821465324032]]},"bias":{"rows":10,"cols":1,"data":[[-0.5373255504161323],[-0.38867640534722536],[-0.12127730750907695],[-0.8930549532071463],[0.9128098652818948],[0.41261960912118445],[0.3795978842873091],[0.6336288609215521],[-0.22204428513856422],[-0.4516989482898257]]}},{"weights":{"rows":3,"cols":10,"data":[[-0.24314511473183797,0.34919272514297317,-0.4651634789611414,-0.05144152586491746,-0.6938869536721728,0.8789603085433728,-0.6833204347905681,-0.0878439543273064,0.27748122227341776,-0.01717130322985483],[0.6883466268052061,0.19034892161891026,-0.5886028510775279,0.04417416909763139,0.44368449879664684,-0.7719854845181562,-0.8511057381701872,-0.4241997177217658,0.11098512316176334,0.9195208915492791],[0.3889504870640059,0.35176656812883733,-0.3083603352328663,0.24181317410405834,0.545655367015613,-0.548965737712491,0.22299428216675432,-0.9061527171451176,-0.29568269255361956,0.6809795865321266]]},"bias":{"rows":3,"cols":1,"data":[[0.5164071699707455],[0.7664065324789608],[0.45310082979623445]]}}]});
best.push({"_learningRate":0.1,"layers":[{"nodes":4},{"nodes":10},{"nodes":10},{"nodes":3}],"connections":[{"weights":{"rows":10,"cols":4,"data":[[-0.1631989273826673,0.7982174543711809,-0.5276893877856437,-0.3875276947468951],[0.5647944885474132,1.3017865434632505,0.22800232669884662,-0.5040188149187776],[0.47289095292654615,-0.026432986342144638,0.7955798878143607,0.6655018833271864],[-0.8630249810850219,-0.8203177129670225,-0.37418015289949924,-0.009449897995583711],[-1.1980071959210812,0.4946634462777854,0.6813489186010901,-1.507501124143467],[-0.0071260227117732056,0.5360536788638559,0.2643151180565156,-0.3275406554687012],[-0.33463574142470687,5.420820960020641,-0.4085156437389137,-0.9466222058774656],[-0.37412755888188487,0.894266741535039,0.7741595251011275,0.8591760847602007],[-0.037656195150145066,0.22398995034581537,0.7864758506887082,-0.951840790903304],[0.8707848094303685,0.044419340446059,0.8155333940864384,-0.9457547476939823]]},"bias":{"rows":10,"cols":1,"data":[[0.558089589568338],[0.04605668975664701],[-0.9985848088695386],[0.7295798365022264],[-0.5798305401071427],[-0.2565246075012327],[0.8909751761693019],[-0.770784481431301],[0.4465008954029326],[0.9824760299878621]]}},{"weights":{"rows":10,"cols":10,"data":[[-0.4728891853620878,-0.12229052743931579,0.6452433232372714,0.32914630671668416,0.22597671019046928,-0.6357860772024373,-0.5486858817104605,-0.2250789709440748,0.2082055358891286,-0.7450139816410575],[0.9724430745843398,0.5905719205510165,0.2698579285709011,-0.9200862349495164,-0.915588509010552,-0.7638092516449597,0.047898154423392736,0.2511903662110244,0.4246059969556435,0.4139208373439347],[0.5575110235965246,-0.47310606637083996,1.0183260713501738,-0.5971654457515232,-0.03360739681673852,-0.951223784736889,0.9934180144569021,-0.113243315801581,-0.09651136504018032,0.37769286147042314],[0.35560262820482874,0.12029612315606508,0.9759736586300329,0.13394192050307852,0.31136722681068374,-0.5255450812042057,0.9119647841628109,-0.14782746295777283,0.8950306515280029,0.7184363451801232],[0.563240200276824,-0.8508938305642144,-0.8272887249822953,0.8200192653073581,0.8232316792952399,0.3538922457026423,0.5793008937569835,0.17632248789416982,-0.26112477058118777,0.33264920382174257],[0.855756134685365,0.628922296193771,-0.4901436777670338,-0.8353077450194615,0.7414853143106508,0.20615689907457257,0.6908228221342183,0.9230937307061913,0.13582465723000325,-0.9222720401224231],[0.9204751309970285,0.20562369684992632,1.7824261981331369,-0.7192075679396668,0.7415610386527253,0.594597076664396,-0.045260796846395834,-0.21236009064514016,-0.7582873034608433,-0.4824489482787384],[0.7325188436641019,0.8186734191861516,-0.6845044767657509,-0.10796614043041819,-0.188307733874721,0.8604183135191628,0.5645822904736422,-0.41011727837986056,-0.5748514645681166,-0.4867611733444548],[0.39041013326451035,-0.5870447445370562,0.8987641533983273,-0.3702152636596816,-0.08265506208462912,-0.583637696304935,0.8181591474291814,0.5996494475056697,0.7517623987788826,-0.6065981094648247],[-0.3395426322738957,-0.867852940308476,0.7014351228964779,-0.19232281515829808,0.8102820790231897,0.5077846702446904,0.2797575395723893,-0.29991816638849844,0.4142444660760826,0.8454821465324032]]},"bias":{"rows":10,"cols":1,"data":[[-0.5373255504161323],[-0.38867640534722536],[-0.12127730750907695],[-0.8930549532071463],[0.9128098652818948],[0.41261960912118445],[0.3795978842873091],[0.6336288609215521],[-0.22204428513856422],[-0.4516989482898257]]}},{"weights":{"rows":3,"cols":10,"data":[[-0.24314511473183797,0.34919272514297317,-0.4651634789611414,-0.05144152586491746,-0.6938869536721728,0.8789603085433728,-0.6833204347905681,-0.0878439543273064,0.27748122227341776,-0.01717130322985483],[0.6883466268052061,0.19034892161891026,-0.5886028510775279,0.04417416909763139,0.44368449879664684,-0.7719854845181562,-0.8511057381701872,-0.4241997177217658,0.11098512316176334,0.9195208915492791],[0.3889504870640059,0.35176656812883733,-0.3083603352328663,0.24181317410405834,0.545655367015613,-0.548965737712491,0.22299428216675432,-0.9061527171451176,-0.29568269255361956,0.6809795865321266]]},"bias":{"rows":3,"cols":1,"data":[[0.5164071699707455],[0.7664065324789608],[0.45310082979623445]]}}]});
best.push({"_learningRate":0.1,"layers":[{"nodes":4},{"nodes":10},{"nodes":10},{"nodes":3}],"connections":[{"weights":{"rows":10,"cols":4,"data":[[-0.1631989273826673,0.7982174543711809,-0.5276893877856437,-0.3875276947468951],[0.5647944885474132,1.3017865434632505,0.22800232669884662,-0.5040188149187776],[0.47289095292654615,-0.026432986342144638,0.7955798878143607,0.6398180918032543],[-0.8630249810850219,-0.8203177129670225,-0.37418015289949924,-0.009449897995583711],[-1.1980071959210812,0.4946634462777854,0.6813489186010901,-1.5272163887095034],[-0.0071260227117732056,0.21630179255872659,0.2643151180565156,-0.3275406554687012],[-0.33463574142470687,5.330099399864756,-0.4085156437389137,-0.9466222058774656],[-0.37412755888188487,0.894266741535039,0.7741595251011275,0.8591760847602007],[-0.037656195150145066,-1.2218640197022852,0.7864758506887082,-0.951840790903304],[0.8707848094303685,0.044419340446059,0.8155333940864384,-0.9457547476939823]]},"bias":{"rows":10,"cols":1,"data":[[0.558089589568338],[0.04605668975664701],[-0.9985848088695386],[0.7295798365022264],[-0.5798305401071427],[-0.20551346339137888],[0.8909751761693019],[-0.770784481431301],[0.4465008954029326],[0.9824760299878621]]}},{"weights":{"rows":10,"cols":10,"data":[[-0.4728891853620878,-0.12229052743931579,0.6452433232372714,0.32914630671668416,0.22597671019046928,-0.6357860772024373,-0.5486858817104605,-0.2250789709440748,0.2082055358891286,-0.7450139816410575],[0.9724430745843398,0.5905719205510165,0.2698579285709011,-0.9200862349495164,-0.915588509010552,-0.7638092516449597,0.047898154423392736,0.2511903662110244,0.4246059969556435,0.4139208373439347],[0.5575110235965246,-0.47310606637083996,1.0183260713501738,-0.5971654457515232,-0.03360739681673852,-0.951223784736889,0.9934180144569021,-0.113243315801581,-0.09651136504018032,0.37769286147042314],[0.35560262820482874,0.12029612315606508,0.9759736586300329,0.13394192050307852,0.31136722681068374,-0.5255450812042057,0.9119647841628109,-0.14782746295777283,0.8950306515280029,0.7184363451801232],[0.563240200276824,-0.8508938305642144,-0.8272887249822953,0.8200192653073581,0.8232316792952399,0.3538922457026423,0.5793008937569835,0.17632248789416982,-0.26112477058118777,0.33264920382174257],[0.855756134685365,0.628922296193771,-0.4901436777670338,-0.8353077450194615,0.7414853143106508,0.20615689907457257,0.6908228221342183,0.9230937307061913,0.13582465723000325,-0.9222720401224231],[0.9204751309970285,0.20562369684992632,1.7824261981331369,-0.7192075679396668,0.7415610386527253,0.594597076664396,-0.045260796846395834,-0.21236009064514016,-0.7582873034608433,-0.4824489482787384],[0.7325188436641019,0.8186734191861516,-0.6845044767657509,-0.10796614043041819,-0.188307733874721,0.8604183135191628,0.5645822904736422,-0.41011727837986056,-0.5748514645681166,-0.4867611733444548],[0.39041013326451035,-0.5870447445370562,0.8987641533983273,-0.3702152636596816,-0.08265506208462912,-0.583637696304935,0.8181591474291814,0.5996494475056697,0.7517623987788826,-0.6065981094648247],[-0.3395426322738957,-0.867852940308476,0.7014351228964779,-0.19232281515829808,0.8102820790231897,0.5077846702446904,0.2797575395723893,-0.2954813025991622,0.4142444660760826,0.8454821465324032]]},"bias":{"rows":10,"cols":1,"data":[[-0.5373255504161323],[-0.38867640534722536],[-0.12127730750907695],[-0.8930549532071463],[0.9128098652818948],[0.41261960912118445],[0.3795978842873091],[0.6336288609215521],[-0.22204428513856422],[-0.4516989482898257]]}},{"weights":{"rows":3,"cols":10,"data":[[-0.24314511473183797,0.34919272514297317,-0.4651634789611414,-0.05144152586491746,-0.6938869536721728,0.8789603085433728,-0.6833204347905681,-0.0878439543273064,0.27748122227341776,-0.01717130322985483],[0.6883466268052061,0.19034892161891026,-0.5886028510775279,0.04417416909763139,0.44368449879664684,-0.7719854845181562,-0.8511057381701872,-0.4241997177217658,0.11098512316176334,0.9195208915492791],[0.3889504870640059,0.35176656812883733,-0.3083603352328663,0.24181317410405834,0.545655367015613,-0.548965737712491,0.22299428216675432,-0.9061527171451176,-0.29568269255361956,0.6809795865321266]]},"bias":{"rows":3,"cols":1,"data":[[0.5164071699707455],[0.7664065324789608],[0.45310082979623445]]}}]});
best.push({"_learningRate":0.1,"layers":[{"nodes":4},{"nodes":10},{"nodes":10},{"nodes":3}],"connections":[{"weights":{"rows":10,"cols":4,"data":[[-0.1631989273826673,0.7982174543711809,-0.5276893877856437,-0.3875276947468951],[0.5647944885474132,1.3017865434632505,0.22800232669884662,-0.5040188149187776],[0.47289095292654615,-0.026432986342144638,0.7955798878143607,0.6398180918032543],[-0.8630249810850219,-0.8203177129670225,-0.37418015289949924,-0.009449897995583711],[-1.1980071959210812,0.4946634462777854,0.6813489186010901,-1.5272163887095034],[-0.0071260227117732056,0.21630179255872659,0.2643151180565156,-0.3275406554687012],[-0.33463574142470687,5.330099399864756,-0.4085156437389137,-0.9466222058774656],[-0.37412755888188487,0.894266741535039,0.7741595251011275,0.8591760847602007],[-0.037656195150145066,-1.2218640197022852,0.7864758506887082,-0.951840790903304],[0.8707848094303685,0.044419340446059,0.8155333940864384,-0.9457547476939823]]},"bias":{"rows":10,"cols":1,"data":[[0.558089589568338],[0.04605668975664701],[-0.9985848088695386],[0.7295798365022264],[-0.5798305401071427],[-0.20551346339137888],[0.8909751761693019],[-0.770784481431301],[0.4465008954029326],[0.9824760299878621]]}},{"weights":{"rows":10,"cols":10,"data":[[-0.4728891853620878,-0.12229052743931579,0.6452433232372714,0.32914630671668416,0.22597671019046928,-0.6357860772024373,-0.5486858817104605,-0.2250789709440748,0.2082055358891286,-0.7450139816410575],[0.9724430745843398,0.5905719205510165,0.2698579285709011,-0.9200862349495164,-0.915588509010552,-0.7638092516449597,0.047898154423392736,0.2511903662110244,0.4246059969556435,0.4139208373439347],[0.5575110235965246,-0.47310606637083996,1.0183260713501738,-0.5971654457515232,-0.03360739681673852,-0.951223784736889,0.9934180144569021,-0.113243315801581,-0.09651136504018032,0.37769286147042314],[0.35560262820482874,0.12029612315606508,0.9759736586300329,0.13394192050307852,0.31136722681068374,-0.5255450812042057,0.9119647841628109,-0.14782746295777283,0.8950306515280029,0.7184363451801232],[0.563240200276824,-0.8508938305642144,-0.8272887249822953,0.8200192653073581,0.8232316792952399,0.3538922457026423,0.5793008937569835,0.17632248789416982,-0.26112477058118777,0.33264920382174257],[0.855756134685365,0.628922296193771,-0.4901436777670338,-0.8353077450194615,0.7414853143106508,0.20615689907457257,0.6908228221342183,0.9230937307061913,0.13582465723000325,-0.9222720401224231],[0.9204751309970285,0.20562369684992632,1.7824261981331369,-0.7192075679396668,0.7415610386527253,0.594597076664396,-0.045260796846395834,-0.21236009064514016,-0.7582873034608433,-0.4824489482787384],[0.7325188436641019,0.8186734191861516,-0.6845044767657509,-0.10796614043041819,-0.188307733874721,0.8604183135191628,0.5645822904736422,-0.41011727837986056,-0.5748514645681166,-0.4867611733444548],[0.39041013326451035,-0.5870447445370562,0.8987641533983273,-0.3702152636596816,-0.08265506208462912,-0.583637696304935,0.8181591474291814,0.5996494475056697,0.7517623987788826,-0.6065981094648247],[-0.3395426322738957,-0.867852940308476,0.7014351228964779,-0.19232281515829808,0.8102820790231897,0.5077846702446904,0.2797575395723893,-0.2954813025991622,0.4142444660760826,0.8454821465324032]]},"bias":{"rows":10,"cols":1,"data":[[-0.5373255504161323],[-0.38867640534722536],[-0.12127730750907695],[-0.8930549532071463],[0.9128098652818948],[0.41261960912118445],[0.3795978842873091],[0.6336288609215521],[-0.22204428513856422],[-0.4516989482898257]]}},{"weights":{"rows":3,"cols":10,"data":[[-0.24314511473183797,0.34919272514297317,-0.4651634789611414,-0.05144152586491746,-0.6938869536721728,0.8789603085433728,-0.6833204347905681,-0.0878439543273064,0.27748122227341776,-0.01717130322985483],[0.6883466268052061,0.19034892161891026,-0.5886028510775279,0.04417416909763139,0.44368449879664684,-0.7719854845181562,-0.8511057381701872,-0.4241997177217658,0.11098512316176334,0.9195208915492791],[0.3889504870640059,0.35176656812883733,-0.3083603352328663,0.24181317410405834,0.545655367015613,-0.548965737712491,0.22299428216675432,-0.9061527171451176,-0.29568269255361956,0.6809795865321266]]},"bias":{"rows":3,"cols":1,"data":[[0.5164071699707455],[0.7664065324789608],[0.45310082979623445]]}}]});
best.push({"_learningRate":0.1,"layers":[{"nodes":4},{"nodes":10},{"nodes":10},{"nodes":3}],"connections":[{"weights":{"rows":10,"cols":4,"data":[[-0.1631989273826673,0.7982174543711809,-0.5276893877856437,-0.3875276947468951],[0.5647944885474132,1.3017865434632505,0.22800232669884662,-0.5040188149187776],[0.47289095292654615,-0.026432986342144638,0.7955798878143607,0.6398180918032543],[-0.8630249810850219,-0.8203177129670225,-0.37418015289949924,-0.009449897995583711],[-1.1980071959210812,0.4946634462777854,0.6813489186010901,-1.5272163887095034],[-0.0071260227117732056,0.21630179255872659,0.2643151180565156,-0.3275406554687012],[-0.33463574142470687,5.330099399864756,-0.4085156437389137,-0.9466222058774656],[-0.37412755888188487,0.894266741535039,0.7741595251011275,0.8591760847602007],[-0.037656195150145066,-1.2218640197022852,0.7864758506887082,-0.951840790903304],[0.8707848094303685,0.044419340446059,0.8155333940864384,-0.9457547476939823]]},"bias":{"rows":10,"cols":1,"data":[[0.558089589568338],[0.04605668975664701],[-0.9985848088695386],[0.7295798365022264],[-0.5798305401071427],[-0.20551346339137888],[0.8909751761693019],[-0.770784481431301],[0.4465008954029326],[0.9824760299878621]]}},{"weights":{"rows":10,"cols":10,"data":[[-0.4728891853620878,-0.12229052743931579,0.6452433232372714,0.32914630671668416,0.22597671019046928,-0.6357860772024373,-0.5486858817104605,-0.2250789709440748,0.2082055358891286,-0.7450139816410575],[0.9724430745843398,0.5905719205510165,0.2698579285709011,-0.9200862349495164,-0.915588509010552,-0.7638092516449597,0.047898154423392736,0.2511903662110244,0.4246059969556435,0.4139208373439347],[0.5575110235965246,-0.47310606637083996,1.0183260713501738,-0.5971654457515232,-0.03360739681673852,-0.951223784736889,0.9934180144569021,-0.113243315801581,-0.09651136504018032,0.37769286147042314],[0.35560262820482874,0.12029612315606508,0.9759736586300329,0.13394192050307852,0.31136722681068374,-0.5255450812042057,0.9119647841628109,-0.14782746295777283,0.8950306515280029,0.7184363451801232],[0.563240200276824,-0.8508938305642144,-0.8272887249822953,0.8200192653073581,0.8232316792952399,0.3538922457026423,0.5793008937569835,0.17632248789416982,-0.26112477058118777,0.33264920382174257],[0.855756134685365,0.628922296193771,-0.4901436777670338,-0.8353077450194615,0.7414853143106508,0.20615689907457257,0.6908228221342183,0.9230937307061913,0.13582465723000325,-0.9222720401224231],[0.9204751309970285,0.20562369684992632,1.7824261981331369,-0.7192075679396668,0.7415610386527253,0.594597076664396,-0.045260796846395834,-0.21236009064514016,-0.7582873034608433,-0.4824489482787384],[0.7325188436641019,0.8186734191861516,-0.6845044767657509,-0.10796614043041819,-0.188307733874721,0.8604183135191628,0.5645822904736422,-0.41011727837986056,-0.5748514645681166,-0.4867611733444548],[0.39041013326451035,-0.5870447445370562,0.8987641533983273,-0.3702152636596816,-0.08265506208462912,-0.583637696304935,0.8181591474291814,0.5996494475056697,0.7517623987788826,-0.6065981094648247],[-0.3395426322738957,-0.867852940308476,0.7014351228964779,-0.19232281515829808,0.8102820790231897,0.5077846702446904,0.2797575395723893,-0.2954813025991622,0.4142444660760826,0.8454821465324032]]},"bias":{"rows":10,"cols":1,"data":[[-0.5373255504161323],[-0.38867640534722536],[-0.12127730750907695],[-0.8930549532071463],[0.9128098652818948],[0.41261960912118445],[0.3795978842873091],[0.6336288609215521],[-0.22204428513856422],[-0.4516989482898257]]}},{"weights":{"rows":3,"cols":10,"data":[[-0.24314511473183797,0.34919272514297317,-0.4651634789611414,-0.05144152586491746,-0.6938869536721728,0.8789603085433728,-0.6833204347905681,-0.0878439543273064,0.27748122227341776,-0.01717130322985483],[0.6883466268052061,0.19034892161891026,-0.5886028510775279,0.04417416909763139,0.44368449879664684,-0.7719854845181562,-0.8511057381701872,-0.4241997177217658,0.11098512316176334,0.9195208915492791],[0.3889504870640059,0.35176656812883733,-0.3083603352328663,0.24181317410405834,0.545655367015613,-0.548965737712491,0.22299428216675432,-0.9061527171451176,-0.29568269255361956,0.6809795865321266]]},"bias":{"rows":3,"cols":1,"data":[[0.5164071699707455],[0.7664065324789608],[0.45310082979623445]]}}]});
best.push({"_learningRate":0.1,"layers":[{"nodes":4},{"nodes":10},{"nodes":10},{"nodes":3}],"connections":[{"weights":{"rows":10,"cols":4,"data":[[-0.1631989273826673,0.7982174543711809,-0.5276893877856437,-0.3875276947468951],[0.5647944885474132,1.3017865434632505,0.22800232669884662,-0.5040188149187776],[0.47289095292654615,-0.026432986342144638,0.7955798878143607,0.6655018833271864],[-0.8630249810850219,-0.8203177129670225,-0.37418015289949924,-0.009449897995583711],[-1.1980071959210812,0.4946634462777854,0.6813489186010901,-1.5272163887095034],[-0.0071260227117732056,0.21630179255872659,0.2643151180565156,-0.3275406554687012],[-0.33463574142470687,5.82157520291984,-0.4085156437389137,-0.9466222058774656],[-0.37412755888188487,0.894266741535039,0.7741595251011275,0.8591760847602007],[-0.037656195150145066,-1.2218640197022852,0.7864758506887082,-0.951840790903304],[0.8707848094303685,0.044419340446059,0.8155333940864384,-0.9457547476939823]]},"bias":{"rows":10,"cols":1,"data":[[0.558089589568338],[0.04605668975664701],[-0.9985848088695386],[0.7295798365022264],[-0.5798305401071427],[-0.20551346339137888],[0.8909751761693019],[-0.770784481431301],[0.4465008954029326],[0.9824760299878621]]}},{"weights":{"rows":10,"cols":10,"data":[[-0.4728891853620878,-0.12229052743931579,0.6452433232372714,0.32914630671668416,0.22597671019046928,-0.6357860772024373,-0.5486858817104605,-0.2250789709440748,0.2082055358891286,-0.7450139816410575],[0.9724430745843398,0.5905719205510165,0.2698579285709011,-0.9200862349495164,-0.915588509010552,-0.7638092516449597,0.047898154423392736,0.2511903662110244,0.4246059969556435,0.4139208373439347],[0.5575110235965246,-0.47310606637083996,1.0183260713501738,-0.5971654457515232,-0.03360739681673852,-0.951223784736889,0.9934180144569021,-0.113243315801581,-0.09651136504018032,0.37769286147042314],[0.35560262820482874,0.12029612315606508,0.9759736586300329,0.13394192050307852,0.31136722681068374,-0.5255450812042057,0.9119647841628109,-0.14782746295777283,0.8950306515280029,0.7184363451801232],[0.563240200276824,-0.8508938305642144,-0.8272887249822953,0.8200192653073581,0.8232316792952399,0.3538922457026423,0.5793008937569835,0.17632248789416982,-0.26112477058118777,0.33264920382174257],[0.855756134685365,0.628922296193771,-0.4901436777670338,-0.8353077450194615,0.7414853143106508,0.20615689907457257,0.6908228221342183,0.9230937307061913,0.13582465723000325,-0.9222720401224231],[0.9204751309970285,0.20562369684992632,1.7824261981331369,-0.7192075679396668,0.7415610386527253,0.594597076664396,-0.045260796846395834,-0.21236009064514016,-0.7582873034608433,-0.4824489482787384],[0.7325188436641019,0.8186734191861516,-0.6845044767657509,-0.10796614043041819,-0.188307733874721,0.8604183135191628,0.5645822904736422,-0.41011727837986056,-0.5748514645681166,-0.4867611733444548],[0.39041013326451035,-0.5870447445370562,0.8987641533983273,-0.3702152636596816,-0.08265506208462912,-0.583637696304935,0.8181591474291814,0.5996494475056697,0.7517623987788826,-0.6065981094648247],[-0.3395426322738957,-0.867852940308476,0.7014351228964779,-0.19232281515829808,0.8102820790231897,0.5077846702446904,0.2797575395723893,-0.29991816638849844,0.4142444660760826,0.8454821465324032]]},"bias":{"rows":10,"cols":1,"data":[[-0.5373255504161323],[-0.38867640534722536],[-0.12127730750907695],[-0.8930549532071463],[0.9128098652818948],[0.41261960912118445],[0.3795978842873091],[0.6336288609215521],[-0.22204428513856422],[-0.4516989482898257]]}},{"weights":{"rows":3,"cols":10,"data":[[-0.24314511473183797,0.34919272514297317,-0.4651634789611414,-0.05144152586491746,-0.6938869536721728,0.8789603085433728,-0.6833204347905681,-0.0878439543273064,0.27748122227341776,-0.01717130322985483],[0.6883466268052061,0.19034892161891026,-0.5886028510775279,0.04417416909763139,0.44368449879664684,-0.7719854845181562,-0.8511057381701872,-0.4241997177217658,0.11098512316176334,0.9195208915492791],[0.3889504870640059,0.35176656812883733,-0.3083603352328663,0.24181317410405834,0.545655367015613,-0.548965737712491,0.22299428216675432,-0.9061527171451176,-0.29568269255361956,0.6809795865321266]]},"bias":{"rows":3,"cols":1,"data":[[0.5164071699707455],[0.7664065324789608],[0.45310082979623445]]}}]});
best.push({"_learningRate":0.1,"layers":[{"nodes":4},{"nodes":10},{"nodes":10},{"nodes":3}],"connections":[{"weights":{"rows":10,"cols":4,"data":[[-0.1631989273826673,0.7982174543711809,-0.5276893877856437,-0.3875276947468951],[0.5647944885474132,1.3017865434632505,0.22800232669884662,-0.5040188149187776],[0.47289095292654615,-0.026432986342144638,0.7955798878143607,0.6655018833271864],[-0.8630249810850219,-0.8203177129670225,-0.37418015289949924,-0.009449897995583711],[-1.1980071959210812,0.4946634462777854,0.6813489186010901,-1.507501124143467],[-0.0071260227117732056,0.5360536788638559,0.2643151180565156,-0.3275406554687012],[-0.33463574142470687,5.420820960020641,-0.4085156437389137,-0.9466222058774656],[-0.37412755888188487,0.894266741535039,0.7741595251011275,0.8591760847602007],[-0.037656195150145066,0.22398995034581537,0.7864758506887082,-0.951840790903304],[0.8707848094303685,0.044419340446059,0.8155333940864384,-0.9457547476939823]]},"bias":{"rows":10,"cols":1,"data":[[0.558089589568338],[0.04605668975664701],[-0.9985848088695386],[0.7295798365022264],[-0.5798305401071427],[-0.20551346339137888],[0.8909751761693019],[-0.770784481431301],[0.4465008954029326],[0.9824760299878621]]}},{"weights":{"rows":10,"cols":10,"data":[[-0.4728891853620878,-0.12229052743931579,0.6452433232372714,0.32914630671668416,0.22597671019046928,-0.6357860772024373,-0.5486858817104605,-0.2250789709440748,0.2082055358891286,-0.7450139816410575],[0.9724430745843398,0.5905719205510165,0.2698579285709011,-0.9200862349495164,-0.915588509010552,-0.7638092516449597,0.047898154423392736,0.2511903662110244,0.4246059969556435,0.4139208373439347],[0.5575110235965246,-0.47310606637083996,1.0183260713501738,-0.5971654457515232,-0.03360739681673852,-0.951223784736889,0.9934180144569021,-0.113243315801581,-0.09651136504018032,0.37769286147042314],[0.35560262820482874,0.12029612315606508,0.9759736586300329,0.13394192050307852,0.31136722681068374,-0.5255450812042057,0.9119647841628109,-0.14782746295777283,0.8950306515280029,0.7184363451801232],[0.563240200276824,-0.8508938305642144,-0.8272887249822953,0.8200192653073581,0.8232316792952399,0.3538922457026423,0.5793008937569835,0.17632248789416982,-0.26112477058118777,0.33264920382174257],[0.855756134685365,0.628922296193771,-0.4901436777670338,-0.8353077450194615,0.7414853143106508,0.20615689907457257,0.6908228221342183,0.9230937307061913,0.13582465723000325,-0.9222720401224231],[0.9204751309970285,0.20562369684992632,1.7824261981331369,-0.7192075679396668,0.7415610386527253,0.594597076664396,-0.045260796846395834,-0.21236009064514016,-0.7582873034608433,-0.4824489482787384],[0.7325188436641019,0.8186734191861516,-0.6845044767657509,-0.10796614043041819,-0.188307733874721,0.8604183135191628,0.5645822904736422,-0.41011727837986056,-0.5748514645681166,-0.4867611733444548],[0.39041013326451035,-0.5870447445370562,0.8987641533983273,-0.3702152636596816,-0.08265506208462912,-0.583637696304935,0.8181591474291814,0.5996494475056697,0.7517623987788826,-0.6065981094648247],[-0.3395426322738957,-0.867852940308476,0.7014351228964779,-0.19232281515829808,0.8102820790231897,0.5077846702446904,0.2797575395723893,-0.29991816638849844,0.4142444660760826,0.8454821465324032]]},"bias":{"rows":10,"cols":1,"data":[[-0.5373255504161323],[-0.38867640534722536],[-0.12127730750907695],[-0.8930549532071463],[0.9128098652818948],[0.41261960912118445],[0.3795978842873091],[0.6336288609215521],[-0.22204428513856422],[-0.4516989482898257]]}},{"weights":{"rows":3,"cols":10,"data":[[-0.24314511473183797,0.34919272514297317,-0.4651634789611414,-0.05144152586491746,-0.6938869536721728,0.8789603085433728,-0.6833204347905681,-0.0878439543273064,0.27748122227341776,-0.01717130322985483],[0.6883466268052061,0.19034892161891026,-0.5886028510775279,0.04417416909763139,0.44368449879664684,-0.7719854845181562,-0.8511057381701872,-0.4241997177217658,0.11098512316176334,0.9195208915492791],[0.3889504870640059,0.35176656812883733,-0.3083603352328663,0.24181317410405834,0.545655367015613,-0.548965737712491,0.22299428216675432,-0.9061527171451176,-0.29568269255361956,0.6809795865321266]]},"bias":{"rows":3,"cols":1,"data":[[0.5164071699707455],[0.7664065324789608],[0.45310082979623445]]}}]});
best.push({"_learningRate":0.1,"layers":[{"nodes":4},{"nodes":10},{"nodes":10},{"nodes":3}],"connections":[{"weights":{"rows":10,"cols":4,"data":[[-0.1631989273826673,0.7982174543711809,-0.5276893877856437,-0.3875276947468951],[0.5647944885474132,1.3017865434632505,0.22800232669884662,-0.5040188149187776],[0.47289095292654615,-0.026432986342144638,0.7955798878143607,0.6655018833271864],[-0.8630249810850219,-0.8203177129670225,-0.37418015289949924,-0.009449897995583711],[-1.1980071959210812,0.4946634462777854,0.6813489186010901,-1.5272163887095034],[-0.0071260227117732056,0.21630179255872659,0.2643151180565156,-0.3275406554687012],[-0.33463574142470687,5.330099399864756,-0.4085156437389137,-0.9466222058774656],[-0.37412755888188487,0.894266741535039,0.7741595251011275,0.8591760847602007],[-0.037656195150145066,-1.2218640197022852,0.7864758506887082,-0.951840790903304],[0.8707848094303685,0.044419340446059,0.8155333940864384,-0.9457547476939823]]},"bias":{"rows":10,"cols":1,"data":[[0.558089589568338],[0.04605668975664701],[-0.9985848088695386],[0.7295798365022264],[-0.5798305401071427],[-0.20551346339137888],[0.8909751761693019],[-0.770784481431301],[0.4465008954029326],[0.9824760299878621]]}},{"weights":{"rows":10,"cols":10,"data":[[-0.4728891853620878,-0.12229052743931579,0.6452433232372714,0.32914630671668416,0.22597671019046928,-0.6357860772024373,-0.5486858817104605,-0.2250789709440748,0.2082055358891286,-0.7450139816410575],[0.9724430745843398,0.5905719205510165,0.2698579285709011,-0.9200862349495164,-0.8953016283670632,-0.7638092516449597,0.047898154423392736,0.2511903662110244,0.4246059969556435,0.4139208373439347],[0.5575110235965246,-0.47310606637083996,1.0183260713501738,-0.5971654457515232,-0.03360739681673852,-0.951223784736889,0.9934180144569021,-0.113243315801581,-0.09651136504018032,0.37769286147042314],[0.35560262820482874,0.12029612315606508,0.9759736586300329,0.13394192050307852,0.31136722681068374,-0.5255450812042057,0.9119647841628109,-0.14782746295777283,0.8950306515280029,0.7184363451801232],[0.563240200276824,-0.8508938305642144,-0.8272887249822953,0.8200192653073581,0.8232316792952399,0.3538922457026423,0.5793008937569835,0.17632248789416982,-0.26112477058118777,0.33264920382174257],[0.855756134685365,0.628922296193771,-0.4901436777670338,-0.8353077450194615,0.7414853143106508,0.20615689907457257,0.6908228221342183,0.9230937307061913,0.13582465723000325,-0.9222720401224231],[0.9204751309970285,0.20562369684992632,1.7824261981331369,-0.7192075679396668,0.7415610386527253,0.594597076664396,-0.045260796846395834,-0.21236009064514016,-0.7582873034608433,-0.4824489482787384],[0.7325188436641019,0.8186734191861516,-0.6845044767657509,-0.10796614043041819,-0.188307733874721,0.8604183135191628,0.5645822904736422,-0.41011727837986056,-0.5748514645681166,-0.4867611733444548],[0.39041013326451035,-0.5870447445370562,0.8987641533983273,-0.3702152636596816,-0.08265506208462912,-0.583637696304935,0.8181591474291814,0.5996494475056697,0.7517623987788826,-0.6065981094648247],[-0.3395426322738957,-0.867852940308476,0.7014351228964779,-0.19232281515829808,0.8102820790231897,0.5077846702446904,0.2797575395723893,-0.29991816638849844,0.4142444660760826,0.8454821465324032]]},"bias":{"rows":10,"cols":1,"data":[[-0.5373255504161323],[-0.38867640534722536],[-0.12127730750907695],[-0.8930549532071463],[0.9128098652818948],[0.41261960912118445],[0.3795978842873091],[0.6336288609215521],[-0.22204428513856422],[-0.4516989482898257]]}},{"weights":{"rows":3,"cols":10,"data":[[-0.24314511473183797,0.34919272514297317,-0.4651634789611414,-0.05144152586491746,-0.6938869536721728,0.8789603085433728,-0.6833204347905681,-0.0878439543273064,0.27748122227341776,-0.01717130322985483],[0.6883466268052061,0.19034892161891026,-0.5886028510775279,0.04417416909763139,0.44368449879664684,-0.7719854845181562,-0.8511057381701872,-0.4241997177217658,0.11098512316176334,0.9195208915492791],[0.3889504870640059,0.35176656812883733,-0.3083603352328663,0.24181317410405834,0.545655367015613,-0.548965737712491,0.22299428216675432,-0.9061527171451176,-0.29568269255361956,0.6809795865321266]]},"bias":{"rows":3,"cols":1,"data":[[0.5164071699707455],[0.7664065324789608],[0.45310082979623445]]}}]});
best.push({"_learningRate":0.1,"layers":[{"nodes":4},{"nodes":10},{"nodes":10},{"nodes":3}],"connections":[{"weights":{"rows":10,"cols":4,"data":[[-0.1631989273826673,0.7982174543711809,-0.5276893877856437,-0.3875276947468951],[0.5647944885474132,1.3017865434632505,0.22800232669884662,-0.5040188149187776],[0.47289095292654615,-0.026432986342144638,0.7955798878143607,0.6655018833271864],[-0.8630249810850219,-0.8203177129670225,-0.37418015289949924,-0.009449897995583711],[-1.1980071959210812,0.4946634462777854,0.6813489186010901,-1.5272163887095034],[-0.0071260227117732056,0.21630179255872659,0.2643151180565156,-0.3275406554687012],[-0.33463574142470687,5.82157520291984,-0.4085156437389137,-0.9466222058774656],[-0.37412755888188487,0.894266741535039,0.7741595251011275,0.8591760847602007],[-0.037656195150145066,-1.2218640197022852,0.7864758506887082,-0.951840790903304],[0.8707848094303685,0.044419340446059,0.8155333940864384,-0.9457547476939823]]},"bias":{"rows":10,"cols":1,"data":[[0.558089589568338],[0.04605668975664701],[-0.9985848088695386],[0.7295798365022264],[-0.5798305401071427],[-0.20551346339137888],[0.8909751761693019],[-0.770784481431301],[0.4465008954029326],[0.9824760299878621]]}},{"weights":{"rows":10,"cols":10,"data":[[-0.4728891853620878,-0.12229052743931579,0.6452433232372714,0.32914630671668416,0.22597671019046928,-0.6357860772024373,-0.5486858817104605,-0.2250789709440748,0.2082055358891286,-0.7450139816410575],[0.9724430745843398,0.5905719205510165,0.2698579285709011,-0.9200862349495164,-0.915588509010552,-0.7638092516449597,0.047898154423392736,0.2511903662110244,0.4246059969556435,0.4139208373439347],[0.5575110235965246,-0.47310606637083996,1.0183260713501738,-0.5971654457515232,-0.03360739681673852,-0.951223784736889,0.9934180144569021,-0.113243315801581,-0.09651136504018032,0.37769286147042314],[0.35560262820482874,0.12029612315606508,0.9759736586300329,0.13394192050307852,0.31136722681068374,-0.5255450812042057,0.9119647841628109,-0.14782746295777283,0.8950306515280029,0.7184363451801232],[0.563240200276824,-0.8508938305642144,-0.8272887249822953,0.8200192653073581,0.8232316792952399,0.3538922457026423,0.5793008937569835,0.17632248789416982,-0.26112477058118777,0.33264920382174257],[0.855756134685365,0.628922296193771,-0.4901436777670338,-0.8353077450194615,0.7414853143106508,0.20615689907457257,0.6908228221342183,0.9230937307061913,0.13582465723000325,-0.9222720401224231],[0.9204751309970285,0.20562369684992632,1.7824261981331369,-0.7192075679396668,0.7415610386527253,0.594597076664396,-0.045260796846395834,-0.21236009064514016,-0.7582873034608433,-0.4824489482787384],[0.7325188436641019,0.8186734191861516,-0.6845044767657509,-0.10796614043041819,-0.188307733874721,0.8604183135191628,0.5645822904736422,-0.41011727837986056,-0.5748514645681166,-0.4867611733444548],[0.39041013326451035,-0.5870447445370562,0.8987641533983273,-0.3702152636596816,-0.08265506208462912,-0.583637696304935,0.8181591474291814,0.5996494475056697,0.7517623987788826,-0.6065981094648247],[-0.3395426322738957,-0.867852940308476,0.7014351228964779,-0.19232281515829808,0.8102820790231897,0.5077846702446904,0.2797575395723893,-0.29991816638849844,0.4142444660760826,0.8454821465324032]]},"bias":{"rows":10,"cols":1,"data":[[-0.5373255504161323],[-0.38867640534722536],[-0.12127730750907695],[-0.8930549532071463],[0.9128098652818948],[0.41261960912118445],[0.3795978842873091],[0.6336288609215521],[-0.22204428513856422],[-0.4516989482898257]]}},{"weights":{"rows":3,"cols":10,"data":[[-0.24314511473183797,0.34919272514297317,-0.4651634789611414,-0.05144152586491746,-0.6938869536721728,0.8789603085433728,-0.6833204347905681,-0.0878439543273064,0.27748122227341776,-0.01717130322985483],[0.6883466268052061,0.19034892161891026,-0.5886028510775279,0.04417416909763139,0.44368449879664684,-0.7719854845181562,-0.8511057381701872,-0.4241997177217658,0.11098512316176334,0.9195208915492791],[0.3889504870640059,0.35176656812883733,-0.3083603352328663,0.24181317410405834,0.545655367015613,-0.548965737712491,0.22299428216675432,-0.9061527171451176,-0.29568269255361956,0.6809795865321266]]},"bias":{"rows":3,"cols":1,"data":[[0.5164071699707455],[0.7664065324789608],[0.45310082979623445]]}}]});
